<?xml version="1.0"?>
<opencv_storage>
<stage5>
  <maxWeakCount>5</maxWeakCount>
  <stageThreshold>-1.7083084583282471e+00</stageThreshold>
  <weakClassifiers>
    <_>
      <internalNodes>
        0 -1 384557 6.9776978343725204e-03</internalNodes>
      <leafValues>
        -8.0372250080108643e-01 1.</leafValues></_>
    <_>
      <internalNodes>
        0 -1 1026676 3.6513965460471809e-04</internalNodes>
      <leafValues>
        -5.3103876113891602e-01 1.</leafValues></_>
    <_>
      <internalNodes>
        0 -1 549437 1.0355319827795029e-02</internalNodes>
      <leafValues>
        -5.0307053327560425e-01 6.9962078332901001e-01</leafValues></_>
    <_>
      <internalNodes>
        0 -1 469592 -2.6533666532486677e-03</internalNodes>
      <leafValues>
        6.2706041336059570e-01 -6.0459959506988525e-01</leafValues></_>
    <_>
      <internalNodes>
        0 -1 1293875 2.1318437575246207e-05</internalNodes>
      <leafValues>
        -4.6856838464736938e-01 7.6365613937377930e-01</leafValues></_></weakClassifiers></stage5>
</opencv_storage>
