<?xml version="1.0"?>
<opencv_storage>
<stage1>
  <maxWeakCount>8</maxWeakCount>
  <stageThreshold>-1.5988212823867798e+00</stageThreshold>
  <weakClassifiers>
    <_>
      <internalNodes>
        0 -1 1165 -5.5117659270763397e-02</internalNodes>
      <leafValues>
        2.5423727929592133e-02 -8.5250335931777954e-01</leafValues></_>
    <_>
      <internalNodes>
        0 -1 1201305 4.8511669039726257e-02</internalNodes>
      <leafValues>
        -5.1921898126602173e-01 5.9355026483535767e-01</leafValues></_>
    <_>
      <internalNodes>
        0 -1 365967 3.0296802520751953e-01</internalNodes>
      <leafValues>
        -2.9610767960548401e-01 6.9615757465362549e-01</leafValues></_>
    <_>
      <internalNodes>
        0 -1 779690 2.7379130478948355e-03</internalNodes>
      <leafValues>
        -3.5520207881927490e-01 4.4533246755599976e-01</leafValues></_>
    <_>
      <internalNodes>
        0 -1 1038511 3.2697163522243500e-02</internalNodes>
      <leafValues>
        -3.1133657693862915e-01 5.4663687944412231e-01</leafValues></_>
    <_>
      <internalNodes>
        0 -1 147639 -6.4315693452954292e-04</internalNodes>
      <leafValues>
        2.9506474733352661e-01 -5.5003035068511963e-01</leafValues></_>
    <_>
      <internalNodes>
        0 -1 80302 -1.5309921000152826e-03</internalNodes>
      <leafValues>
        -8.2959872484207153e-01 1.9375534355640411e-01</leafValues></_>
    <_>
      <internalNodes>
        0 -1 1183007 -6.1449987697415054e-05</internalNodes>
      <leafValues>
        2.9128780961036682e-01 -5.0366246700286865e-01</leafValues></_></weakClassifiers></stage1>
</opencv_storage>
